digraph Tree {
node [shape=box] ;
0 [label="X[26] <= 0.5\ngini = 0.398\nsamples = 2672\nvalue = [1940, 732]"] ;
1 [label="X[16] <= 0.5\ngini = 0.334\nsamples = 2206\nvalue = [1738, 468]"] ;
0 -> 1 [labeldistance=2.5, labelangle=45, headlabel="True"] ;
2 [label="X[12] <= 74.5\ngini = 0.282\nsamples = 1978\nvalue = [1642, 336]"] ;
1 -> 2 ;
3 [label="X[27] <= 2.5\ngini = 0.475\nsamples = 369\nvalue = [226, 143]"] ;
2 -> 3 ;
4 [label="X[12] <= 27.5\ngini = 0.499\nsamples = 153\nvalue = [74, 79]"] ;
3 -> 4 ;
5 [label="gini = 0.425\nsamples = 62\nvalue = [19, 43]"] ;
4 -> 5 ;
6 [label="gini = 0.478\nsamples = 91\nvalue = [55, 36]"] ;
4 -> 6 ;
7 [label="X[4] <= 93.5\ngini = 0.417\nsamples = 216\nvalue = [152, 64]"] ;
3 -> 7 ;
8 [label="gini = 0.403\nsamples = 211\nvalue = [152, 59]"] ;
7 -> 8 ;
9 [label="gini = 0.0\nsamples = 5\nvalue = [0, 5]"] ;
7 -> 9 ;
10 [label="X[27] <= 5.5\ngini = 0.211\nsamples = 1609\nvalue = [1416, 193]"] ;
2 -> 10 ;
11 [label="X[1] <= 1330.0\ngini = 0.318\nsamples = 711\nvalue = [570, 141]"] ;
10 -> 11 ;
12 [label="gini = 0.253\nsamples = 539\nvalue = [459, 80]"] ;
11 -> 12 ;
13 [label="gini = 0.458\nsamples = 172\nvalue = [111, 61]"] ;
11 -> 13 ;
14 [label="X[12] <= 114.5\ngini = 0.109\nsamples = 898\nvalue = [846, 52]"] ;
10 -> 14 ;
15 [label="gini = 0.199\nsamples = 268\nvalue = [238, 30]"] ;
14 -> 15 ;
16 [label="gini = 0.067\nsamples = 630\nvalue = [608, 22]"] ;
14 -> 16 ;
17 [label="X[2] <= 8750.0\ngini = 0.488\nsamples = 228\nvalue = [96, 132]"] ;
1 -> 17 ;
18 [label="X[28] <= 27.0\ngini = 0.477\nsamples = 217\nvalue = [85, 132]"] ;
17 -> 18 ;
19 [label="X[10] <= 0.5\ngini = 0.48\nsamples = 30\nvalue = [18, 12]"] ;
18 -> 19 ;
20 [label="gini = 0.308\nsamples = 21\nvalue = [17, 4]"] ;
19 -> 20 ;
21 [label="gini = 0.198\nsamples = 9\nvalue = [1, 8]"] ;
19 -> 21 ;
22 [label="X[0] <= 34.5\ngini = 0.46\nsamples = 187\nvalue = [67, 120]"] ;
18 -> 22 ;
23 [label="gini = 0.482\nsamples = 143\nvalue = [58, 85]"] ;
22 -> 23 ;
24 [label="gini = 0.325\nsamples = 44\nvalue = [9, 35]"] ;
22 -> 24 ;
25 [label="gini = 0.0\nsamples = 11\nvalue = [11, 0]"] ;
17 -> 25 ;
26 [label="X[27] <= 6.5\ngini = 0.491\nsamples = 466\nvalue = [202, 264]"] ;
0 -> 26 [labeldistance=2.5, labelangle=-45, headlabel="False"] ;
27 [label="X[1] <= 862.5\ngini = 0.418\nsamples = 269\nvalue = [80, 189]"] ;
26 -> 27 ;
28 [label="X[27] <= 0.5\ngini = 0.499\nsamples = 62\nvalue = [32, 30]"] ;
27 -> 28 ;
29 [label="gini = 0.0\nsamples = 10\nvalue = [0, 10]"] ;
28 -> 29 ;
30 [label="X[24] <= 925.0\ngini = 0.473\nsamples = 52\nvalue = [32, 20]"] ;
28 -> 30 ;
31 [label="gini = 0.476\nsamples = 23\nvalue = [9, 14]"] ;
30 -> 31 ;
32 [label="gini = 0.328\nsamples = 29\nvalue = [23, 6]"] ;
30 -> 32 ;
33 [label="X[2] <= 8250.0\ngini = 0.356\nsamples = 207\nvalue = [48, 159]"] ;
27 -> 33 ;
34 [label="X[13] <= 0.5\ngini = 0.294\nsamples = 173\nvalue = [31, 142]"] ;
33 -> 34 ;
35 [label="gini = 0.117\nsamples = 64\nvalue = [4, 60]"] ;
34 -> 35 ;
36 [label="gini = 0.373\nsamples = 109\nvalue = [27, 82]"] ;
34 -> 36 ;
37 [label="X[12] <= 135.282\ngini = 0.5\nsamples = 34\nvalue = [17, 17]"] ;
33 -> 37 ;
38 [label="gini = 0.36\nsamples = 17\nvalue = [4, 13]"] ;
37 -> 38 ;
39 [label="gini = 0.36\nsamples = 17\nvalue = [13, 4]"] ;
37 -> 39 ;
40 [label="X[12] <= 103.5\ngini = 0.472\nsamples = 197\nvalue = [122, 75]"] ;
26 -> 40 ;
41 [label="X[2] <= 4500.0\ngini = 0.483\nsamples = 66\nvalue = [27, 39]"] ;
40 -> 41 ;
42 [label="X[28] <= 54.0\ngini = 0.349\nsamples = 40\nvalue = [9, 31]"] ;
41 -> 42 ;
43 [label="gini = 0.488\nsamples = 19\nvalue = [8, 11]"] ;
42 -> 43 ;
44 [label="gini = 0.091\nsamples = 21\nvalue = [1, 20]"] ;
42 -> 44 ;
45 [label="X[12] <= 50.5\ngini = 0.426\nsamples = 26\nvalue = [18, 8]"] ;
41 -> 45 ;
46 [label="gini = 0.496\nsamples = 11\nvalue = [5, 6]"] ;
45 -> 46 ;
47 [label="gini = 0.231\nsamples = 15\nvalue = [13, 2]"] ;
45 -> 47 ;
48 [label="X[4] <= 89.0\ngini = 0.399\nsamples = 131\nvalue = [95, 36]"] ;
40 -> 48 ;
49 [label="X[27] <= 32.5\ngini = 0.364\nsamples = 117\nvalue = [89, 28]"] ;
48 -> 49 ;
50 [label="gini = 0.345\nsamples = 113\nvalue = [88, 25]"] ;
49 -> 50 ;
51 [label="gini = 0.375\nsamples = 4\nvalue = [1, 3]"] ;
49 -> 51 ;
52 [label="X[24] <= 1727.5\ngini = 0.49\nsamples = 14\nvalue = [6, 8]"] ;
48 -> 52 ;
53 [label="gini = 0.408\nsamples = 7\nvalue = [5, 2]"] ;
52 -> 53 ;
54 [label="gini = 0.245\nsamples = 7\nvalue = [1, 6]"] ;
52 -> 54 ;
}
